{"gradients/graph_81layers.2.weight":{"values":[256],"bins":[0,0],"_type":"histogram"},"gradients/graph_81layers.3.bias":{"_type":"histogram","values":[16],"bins":[0,0]},"gradients/graph_80layers.3.weight":{"values":[1,0,0,0,0,0,0,0,0,0,0,0,0,3,0,1,2,0,2,1,4,3,1,2,1,2,8,1,7,4,16,142,13,3,10,3,5,3,1,1,1,6,1,0,0,2,0,0,0,0,2,1,0,1,0,1,0,0,0,0,0,0,0,1],"bins":[-4.9342517741024494e-05,-4.7768618969712406e-05,-4.619471656042151e-05,-4.462081415113062e-05,-4.304691537981853e-05,-4.147301660850644e-05,-3.9899114199215546e-05,-3.832521178992465e-05,-3.6751313018612564e-05,-3.5177414247300476e-05,-3.360351183800958e-05,-3.2029609428718686e-05,-3.04557106574066e-05,-2.8881810067105107e-05,-2.7307909476803616e-05,-2.5734008886502124e-05,-2.4160108296200633e-05,-2.2586207705899142e-05,-2.101230711559765e-05,-1.943840652529616e-05,-1.7864505934994668e-05,-1.629060716368258e-05,-1.4716704754391685e-05,-1.314280234510079e-05,-1.1568903573788702e-05,-9.995004802476615e-06,-8.42110239318572e-06,-6.847199983894825e-06,-5.273301212582737e-06,-3.6994024412706494e-06,-2.1255000319797546e-06,-5.515976226888597e-07,1.022301148623228e-06,2.596199919935316e-06,4.170102329226211e-06,5.744004738517106e-06,7.317903509829193e-06,8.891802281141281e-06,1.0465704690432176e-05,1.2039607099723071e-05,1.3613505871035159e-05,1.5187404642347246e-05,1.676130705163814e-05,1.8335209460929036e-05,1.9909108232241124e-05,2.1483008822542615e-05,2.3056909412844107e-05,2.4630810003145598e-05,2.620471059344709e-05,2.777861118374858e-05,2.9352511774050072e-05,3.092641418334097e-05,3.2500312954653054e-05,3.407421172596514e-05,3.564811413525604e-05,3.722201654454693e-05,3.879591531585902e-05,4.036981408717111e-05,4.1943716496462e-05,4.35176189057529e-05,4.5091517677064985e-05,4.666541644837707e-05,4.823931885766797e-05,4.981322126695886e-05,5.138712003827095e-05],"_type":"histogram"},"gradients/graph_81layers.1.bias":{"_type":"histogram","values":[16],"bins":[0,0]},"gradients/graph_80layers.4.bias":{"_type":"histogram","values":[1,0,0,0,0,0,0,0,0,0,0,0,0,0,0,0,0,0,0,0,0,0,0,0,0,0,0,0,0,0,0,0,0,0,0,0,0,0,0,0,0,0,0,0,0,0,0,0,0,0,0,0,0,0,0,0,0,0,0,0,0,0,0,1],"bins":[-1.6662757843732834e-05,-1.6627827790216543e-05,-1.6592897736700252e-05,-1.655796768318396e-05,-1.652303762966767e-05,-1.648810757615138e-05,-1.6453177522635087e-05,-1.6418247469118796e-05,-1.6383317415602505e-05,-1.6348387362086214e-05,-1.6313457308569923e-05,-1.6278527255053632e-05,-1.624359720153734e-05,-1.620866714802105e-05,-1.617373709450476e-05,-1.6138807040988468e-05,-1.6103876987472177e-05,-1.6068946933955885e-05,-1.6034016880439594e-05,-1.5999086826923303e-05,-1.5964156773407012e-05,-1.592922671989072e-05,-1.589429666637443e-05,-1.585936661285814e-05,-1.5824436559341848e-05,-1.5789506505825557e-05,-1.5754576452309266e-05,-1.5719646398792975e-05,-1.5684716345276684e-05,-1.5649786291760392e-05,-1.56148562382441e-05,-1.557992618472781e-05,-1.554499613121152e-05,-1.5510066077695228e-05,-1.5475136024178937e-05,-1.5440205970662646e-05,-1.5405275917146355e-05,-1.5370345863630064e-05,-1.5335415810113773e-05,-1.530048575659748e-05,-1.526555570308119e-05,-1.52306256495649e-05,-1.5195695596048608e-05,-1.5160765542532317e-05,-1.5125835489016026e-05,-1.5090905435499735e-05,-1.5055975381983444e-05,-1.5021045328467153e-05,-1.4986115274950862e-05,-1.4951185221434571e-05,-1.491625516791828e-05,-1.4881325114401989e-05,-1.4846395060885698e-05,-1.4811465007369407e-05,-1.4776534953853115e-05,-1.4741604900336824e-05,-1.4706674846820533e-05,-1.4671744793304242e-05,-1.4636814739787951e-05,-1.460188468627166e-05,-1.4566954632755369e-05,-1.4532024579239078e-05,-1.4497094525722787e-05,-1.4462164472206496e-05,-1.4427234418690205e-05]},"gradients/graph_81layers.2.bias":{"bins":[0,0],"_type":"histogram","values":[16]},"gradients/graph_81layers.3.weight":{"bins":[0,0],"_type":"histogram","values":[256]},"_wandb":{"runtime":123},"BC Loss":5.011893517803401e-05,"gradients/graph_80layers.1.bias":{"values":[1,0,0,0,0,0,0,0,0,0,0,0,0,0,0,0,0,0,2,0,0,0,0,0,0,0,1,0,0,0,0,1,1,0,1,0,0,0,1,0,1,1,1,0,0,0,1,1,0,0,0,0,0,0,0,1,0,0,0,0,0,0,0,2],"bins":[-5.580275319516659e-05,-5.434114427771419e-05,-5.2879538998240605e-05,-5.141793371876702e-05,-4.995632480131462e-05,-4.849471588386223e-05,-4.703311060438864e-05,-4.557150532491505e-05,-4.4109896407462656e-05,-4.264828749001026e-05,-4.1186682210536674e-05,-3.9725076931063086e-05,-3.826346801361069e-05,-3.6801859096158296e-05,-3.534025381668471e-05,-3.387864853721112e-05,-3.2417039619758725e-05,-3.095543070230633e-05,-2.9493825422832742e-05,-2.803221832436975e-05,-2.657061122590676e-05,-2.5109002308454365e-05,-2.3647397028980777e-05,-2.218579174950719e-05,-2.0724182832054794e-05,-1.92625739146024e-05,-1.780096863512881e-05,-1.6339363355655223e-05,-1.4877754438202828e-05,-1.3416145520750433e-05,-1.1954540241276845e-05,-1.0492934961803257e-05,-9.031326044350863e-06,-7.5697171268984675e-06,-6.10811184742488e-06,-4.646506567951292e-06,-3.184897650498897e-06,-1.7232887330465019e-06,-2.61683453572914e-07,1.1999218259006739e-06,2.661530743353069e-06,4.123139660805464e-06,5.584744940279052e-06,7.0463502197526395e-06,8.507959137205034e-06,9.969566235668026e-06,1.1431173334131017e-05,1.2892780432594009e-05,1.4354387531057e-05,1.581599462951999e-05,1.7277601727982983e-05,1.8739208826445974e-05,2.0200815924908966e-05,2.1662423023371957e-05,2.312403012183495e-05,2.458563722029794e-05,2.604724431876093e-05,2.7508851417223923e-05,2.8970458515686914e-05,3.0432065614149906e-05,3.18936727126129e-05,3.335528163006529e-05,3.481688690953888e-05,3.627849218901247e-05,3.774010110646486e-05],"_type":"histogram"},"Epoch":9999,"gradients/graph_80layers.4.weight":{"values":[1,0,0,1,0,1,0,0,1,1,1,0,1,0,0,2,1,2,0,0,0,1,1,2,3,0,0,0,0,0,1,1,3,1,0,1,0,0,0,0,0,2,1,0,0,1,0,0,0,0,0,0,0,0,0,0,0,0,0,0,0,0,0,2],"bins":[-2.2121588699519634e-05,-2.1237783585092984e-05,-2.0353978470666334e-05,-1.9470173356239684e-05,-1.8586368241813034e-05,-1.7702563127386384e-05,-1.6818758012959734e-05,-1.5934952898533083e-05,-1.5051147784106433e-05,-1.4167342669679783e-05,-1.3283537555253133e-05,-1.2399732440826483e-05,-1.1515927326399833e-05,-1.0632122211973183e-05,-9.748317097546533e-06,-8.864511983119883e-06,-7.980706868693233e-06,-7.0969017542665824e-06,-6.213096639839932e-06,-5.329291525413282e-06,-4.445486410986632e-06,-3.561681296559982e-06,-2.677876182133332e-06,-1.7940710677066818e-06,-9.102659532800317e-07,-2.6460838853381574e-08,8.573442755732685e-07,1.7411493899999186e-06,2.6249545044265687e-06,3.508759618853219e-06,4.392564733279869e-06,5.276369847706519e-06,6.160174962133169e-06,7.043980076559819e-06,7.92778519098647e-06,8.81159030541312e-06,9.69539541983977e-06,1.057920053426642e-05,1.146300564869307e-05,1.234681076311972e-05,1.323061587754637e-05,1.411442099197302e-05,1.499822610639967e-05,1.588203122082632e-05,1.676583633525297e-05,1.764964144967962e-05,1.853344656410627e-05,1.941725167853292e-05,2.030105679295957e-05,2.118486190738622e-05,2.206866702181287e-05,2.295247213623952e-05,2.383627725066617e-05,2.472008236509282e-05,2.560388747951947e-05,2.648769259394612e-05,2.7371497708372772e-05,2.8255302822799422e-05,2.9139107937226072e-05,3.0022913051652722e-05,3.090671816607937e-05,3.179052146151662e-05,3.267432839493267e-05,3.3558135328348726e-05,3.444193862378597e-05],"_type":"histogram"},"gradients/graph_80layers.3.bias":{"_type":"histogram","values":[1,0,0,0,0,0,0,0,0,0,0,0,0,0,0,0,0,0,0,0,0,0,0,0,0,1,0,0,1,0,0,0,0,5,4,1,0,0,0,0,0,0,1,0,0,0,0,0,0,0,0,1,0,0,0,0,0,0,0,0,0,0,0,1],"bins":[-3.232317976653576e-05,-3.137203384540044e-05,-3.0420887924265116e-05,-2.9469742003129795e-05,-2.8518596081994474e-05,-2.7567450160859153e-05,-2.661630423972383e-05,-2.566515831858851e-05,-2.471401239745319e-05,-2.3762866476317868e-05,-2.2811720555182546e-05,-2.1860574634047225e-05,-2.0909428712911904e-05,-1.9958282791776583e-05,-1.900713687064126e-05,-1.805599094950594e-05,-1.710484502837062e-05,-1.6153699107235298e-05,-1.5202553186099976e-05,-1.4251407264964655e-05,-1.3300261343829334e-05,-1.2349115422694013e-05,-1.1397969501558691e-05,-1.044682358042337e-05,-9.495677659288049e-06,-8.544531738152727e-06,-7.593385817017406e-06,-6.642239895882085e-06,-5.691093974746764e-06,-4.7399480536114424e-06,-3.788802132476121e-06,-2.8376562113408e-06,-1.8865102902054787e-06,-9.353643690701574e-07,1.578155206516385e-08,9.669274732004851e-07,1.9180733943358064e-06,2.8692193154711276e-06,3.820365236606449e-06,4.77151115774177e-06,5.722657078877091e-06,6.673803000012413e-06,7.624948921147734e-06,8.576094842283055e-06,9.527240763418376e-06,1.0478386684553698e-05,1.1429532605689019e-05,1.238067852682434e-05,1.3331824447959661e-05,1.4282970369094983e-05,1.5234116290230304e-05,1.6185262211365625e-05,1.7136408132500947e-05,1.8087554053636268e-05,1.903869997477159e-05,1.998984589590691e-05,2.094099181704223e-05,2.1892137738177553e-05,2.2843283659312874e-05,2.3794429580448195e-05,2.4745575501583517e-05,2.5696721422718838e-05,2.664786734385416e-05,2.759901326498948e-05,2.85501591861248e-05]},"gradients/graph_80layers.0.weight":{"_type":"histogram","values":[1,0,0,1,0,0,0,0,1,0,0,0,0,0,0,0,0,0,0,0,0,0,0,0,1,0,1,0,0,0,0,0,1,0,0,1,0,0,1,0,0,1,0,0,0,0,0,0,1,2,0,0,0,0,0,0,0,0,0,1,0,1,0,2],"bins":[-1.9365455955266953e-05,-1.8849721527658403e-05,-1.8333987100049853e-05,-1.7818252672441304e-05,-1.7302518244832754e-05,-1.6786783817224205e-05,-1.6271049389615655e-05,-1.5755314962007105e-05,-1.5239580534398556e-05,-1.4723846106790006e-05,-1.4208111679181457e-05,-1.3692377251572907e-05,-1.3176642823964357e-05,-1.2660908396355808e-05,-1.2145173968747258e-05,-1.1629439541138709e-05,-1.1113705113530159e-05,-1.059797068592161e-05,-1.008223625831306e-05,-9.56650183070451e-06,-9.05076740309596e-06,-8.535032975487411e-06,-8.019298547878861e-06,-7.503564120270312e-06,-6.987829692661762e-06,-6.472095265053213e-06,-5.956360837444663e-06,-5.4406264098361135e-06,-4.924891982227564e-06,-4.409157554619014e-06,-3.893423127010465e-06,-3.377688699401915e-06,-2.8619542717933655e-06,-2.346219844184816e-06,-1.8304854165762663e-06,-1.3147509889677167e-06,-7.990165613591671e-07,-2.832821337506175e-07,2.324522938579321e-07,7.481867214664817e-07,1.2639211490750313e-06,1.7796555766835809e-06,2.2953900042921305e-06,2.81112443190068e-06,3.3268588595092297e-06,3.842593287117779e-06,4.358327714726329e-06,4.8740621423348784e-06,5.389796569943428e-06,5.905530997551978e-06,6.421265425160527e-06,6.936999852769077e-06,7.452734280377626e-06,7.968468707986176e-06,8.484203135594726e-06,8.999937563203275e-06,9.515671990811825e-06,1.0031406418420374e-05,1.0547140846028924e-05,1.1062875273637474e-05,1.1578609701246023e-05,1.2094344128854573e-05,1.2610078556463122e-05,1.3125812984071672e-05,1.3641547411680222e-05]},"gradients/graph_80layers.2.weight":{"bins":[-3.535182622727007e-05,-3.427539559197612e-05,-3.319896131870337e-05,-3.212253068340942e-05,-3.104609641013667e-05,-2.9969665774842724e-05,-2.8893233320559375e-05,-2.7816800866276026e-05,-2.6740368411992677e-05,-2.5663935957709327e-05,-2.4587503503425978e-05,-2.351107104914263e-05,-2.2434640413848683e-05,-2.135820614057593e-05,-2.0281775505281985e-05,-1.9205343050998636e-05,-1.8128910596715286e-05,-1.7052478142431937e-05,-1.5976045688148588e-05,-1.4899613233865239e-05,-1.382318077958189e-05,-1.2746750144287944e-05,-1.1670317690004595e-05,-1.0593885235721245e-05,-9.517452781437896e-06,-8.441020327154547e-06,-7.364587872871198e-06,-6.2881554185878485e-06,-5.211724783293903e-06,-4.13529051002115e-06,-3.0588598747272044e-06,-1.9824256014544517e-06,-9.05994966160506e-07,1.7043566913343966e-07,1.2468699424061924e-06,2.323300577700138e-06,3.399734850972891e-06,4.4761654862668365e-06,5.552597940550186e-06,6.629030394833535e-06,7.705462849116884e-06,8.781895303400233e-06,9.858327757683583e-06,1.0934760211966932e-05,1.2011190847260877e-05,1.3087623301544227e-05,1.4164055755827576e-05,1.5240488210110925e-05,1.6316920664394274e-05,1.7393353118677624e-05,1.8469785572960973e-05,1.954621620825492e-05,2.062265048152767e-05,2.1699081116821617e-05,2.2775513571104966e-05,2.3851946025388315e-05,2.4928378479671665e-05,2.6004810933955014e-05,2.7081243388238363e-05,2.8157675842521712e-05,2.9234106477815658e-05,3.0310538932099007e-05,3.1386971386382356e-05,3.246340565965511e-05,3.3539836294949055e-05],"_type":"histogram","values":[1,0,0,0,0,1,1,0,1,2,1,0,0,2,1,1,2,0,0,3,0,2,2,2,0,2,5,6,5,1,10,26,62,48,30,5,7,9,4,1,0,1,0,0,0,4,0,0,0,0,0,0,0,1,2,1,0,0,0,0,0,0,2,2]},"gradients/graph_80layers.1.weight":{"bins":[-1.9345839973539114e-05,-1.864455043687485e-05,-1.794326090021059e-05,-1.7241971363546327e-05,-1.6540681826882064e-05,-1.5839392290217802e-05,-1.513810275355354e-05,-1.4436813216889277e-05,-1.3735523680225015e-05,-1.3034234143560752e-05,-1.233294460689649e-05,-1.1631655070232227e-05,-1.0930365533567965e-05,-1.0229075996903703e-05,-9.52778646023944e-06,-8.826496923575178e-06,-8.125207386910915e-06,-7.423917850246653e-06,-6.7226283135823905e-06,-6.021338776918128e-06,-5.320049240253866e-06,-4.618759703589603e-06,-3.917470166925341e-06,-3.2161806302610785e-06,-2.514891093596816e-06,-1.8136015569325536e-06,-1.1123120202682912e-06,-4.110224836040288e-07,2.902670530602336e-07,9.91556589724496e-07,1.6928461263887584e-06,2.394135663053021e-06,3.0954251997172832e-06,3.7967147363815457e-06,4.498004273045808e-06,5.1992938097100705e-06,5.900583346374333e-06,6.601872883038595e-06,7.303162419702858e-06,8.00445195636712e-06,8.705741493031383e-06,9.407031029695645e-06,1.0108320566359907e-05,1.080961010302417e-05,1.1510899639688432e-05,1.2212189176352695e-05,1.2913478713016957e-05,1.361476824968122e-05,1.4316057786345482e-05,1.5017347323009744e-05,1.5718636859674007e-05,1.641992639633827e-05,1.712121593300253e-05,1.7822505469666794e-05,1.8523795006331056e-05,1.922508454299532e-05,1.992637407965958e-05,2.0627663616323844e-05,2.1328953152988106e-05,2.203024268965237e-05,2.273153222631663e-05,2.3432821762980893e-05,2.4134111299645156e-05,2.4835400836309418e-05,2.553669037297368e-05],"_type":"histogram","values":[1,0,1,1,0,1,0,0,0,0,1,1,0,2,0,1,5,1,3,4,3,4,4,11,20,21,26,29,25,29,17,8,8,5,4,2,2,1,2,2,2,0,2,1,1,1,1,2,0,0,0,0,0,0,0,0,0,0,0,0,0,0,0,1]},"Loss":0.033094681799411774,"_runtime":123.6862873,"PDE Loss":0.08597264438867569,"_step":10000,"gradients/graph_80layers.2.bias":{"_type":"histogram","values":[1,0,0,0,0,0,0,0,0,0,0,0,0,0,0,1,0,0,0,0,0,0,0,0,0,0,0,0,0,0,0,1,0,0,0,0,0,0,0,0,0,0,0,0,0,0,0,0,0,1,1,1,2,0,3,0,2,0,0,0,1,0,1,1],"bins":[-3.5424105590209365e-05,-3.47598543157801e-05,-3.4095599403372034e-05,-3.343134812894277e-05,-3.2767093216534704e-05,-3.210284194210544e-05,-3.1438587029697374e-05,-3.077433575526811e-05,-3.0110082661849447e-05,-2.944582956843078e-05,-2.8781576475012116e-05,-2.811732338159345e-05,-2.745307210716419e-05,-2.678881719475612e-05,-2.612456592032686e-05,-2.5460312826908194e-05,-2.4796059733489528e-05,-2.4131806640070863e-05,-2.3467553546652198e-05,-2.2803302272222936e-05,-2.2139047359814867e-05,-2.1474796085385606e-05,-2.081054299196694e-05,-2.0146289898548275e-05,-1.948203680512961e-05,-1.8817783711710945e-05,-1.815353061829228e-05,-1.7489277524873614e-05,-1.6825026250444353e-05,-1.6160773157025687e-05,-1.5496520063607022e-05,-1.4832266970188357e-05,-1.4168013876769692e-05,-1.3503760783351026e-05,-1.2839507689932361e-05,-1.2175254596513696e-05,-1.151100150309503e-05,-1.0846750228665769e-05,-1.0182497135247104e-05,-9.518244041828439e-06,-8.853990948409773e-06,-8.189737854991108e-06,-7.525484761572443e-06,-6.8612325776484795e-06,-6.196979484229814e-06,-5.532726390811149e-06,-4.8684742068871856e-06,-4.20422111346852e-06,-3.539968020049855e-06,-2.87571492663119e-06,-2.2114618332125247e-06,-1.5472096492885612e-06,-8.82956555869896e-07,-2.1870346245123073e-07,4.455491762200836e-07,1.109801814891398e-06,1.7740549083100632e-06,2.4383080017287284e-06,3.1025606404000428e-06,3.7668135064450325e-06,4.431066372490022e-06,5.0953194659086876e-06,5.759572104580002e-06,6.423824743251316e-06,7.0880778366699815e-06]},"gradients/graph_81layers.4.weight":{"_type":"histogram","values":[32],"bins":[0,0]},"Data Loss":0.013261287473142147,"gradients/graph_81layers.4.bias":{"_type":"histogram","values":[2],"bins":[0,0]},"gradients/graph_80layers.0.bias":{"_type":"histogram","values":[1,0,0,0,0,1,0,0,0,1,0,0,0,0,0,1,0,1,0,1,0,1,0,1,0,0,0,0,0,0,0,0,0,0,0,0,0,2,2,0,1,0,0,1,0,0,0,1,0,0,0,0,0,0,0,0,0,0,0,0,0,0,0,1],"bins":[-0.00017211074009537697,-0.0001657087414059788,-0.00015930674271658063,-0.00015290474402718246,-0.0001465027453377843,-0.00014010074664838612,-0.00013369874795898795,-0.00012729674926958978,-0.00012089475058019161,-0.00011449275189079344,-0.00010809075320139527,-0.0001016887545119971,-9.528675582259893e-05,-8.888475713320076e-05,-8.24827584438026e-05,-7.608075975440443e-05,-6.967876106500626e-05,-6.327676237560809e-05,-5.687476368620992e-05,-5.047276499681175e-05,-4.407076630741358e-05,-3.766876761801541e-05,-3.126676892861724e-05,-2.486477023921907e-05,-1.84627715498209e-05,-1.206077286042273e-05,-5.658774171024561e-06,7.432245183736086e-07,7.145223207771778e-06,1.3547221897169948e-05,1.9949220586568117e-05,2.6351219275966287e-05,3.2753217965364456e-05,3.9155216654762626e-05,4.5557215344160795e-05,5.1959214033558965e-05,5.8361212722957134e-05,6.47632114123553e-05,7.116521010175347e-05,7.756720879115164e-05,8.396920748054981e-05,9.037120616994798e-05,9.677320485934615e-05,0.00010317520354874432,0.00010957720223814249,0.00011597920092754066,0.00012238119961693883,0.000128783198306337,0.00013518519699573517,0.00014158719568513334,0.0001479891943745315,0.00015439119306392968,0.00016079319175332785,0.00016719519044272602,0.00017359718913212419,0.00017999918782152236,0.00018640118651092052,0.0001928031852003187,0.00019920518388971686,0.00020560718257911503,0.0002120091812685132,0.00021841117995791137,0.00022481317864730954,0.0002312151773367077,0.00023761717602610588]},"gradients/graph_81layers.0.bias":{"_type":"histogram","values":[16],"bins":[0,0]},"_timestamp":1.7333555107558088e+09,"gradients/graph_81layers.1.weight":{"bins":[0,0],"_type":"histogram","values":[256]},"gradients/graph_81layers.0.weight":{"_type":"histogram","values":[32],"bins":[0,0]}}